
\data\
ngram 1=169
ngram 2=415
ngram 3=94

\1-grams:
-0.7774124	</s>
-99	<s>	-0.9815328
-2.346133	ένα	-0.1175531
-2.259268	έξι	-0.1175531
-2.259268	έχει	-0.09632025
-2.515761	αγρίνιο	-0.1175531
-2.515761	αθήνα	-0.1175531
-2.515761	ακτίνα	-0.1175532
-2.515761	αλεξανδρούπολη	-0.1175531
-2.515761	αμστερνταμ	-0.1175531
-2.515761	αν	-0.1175531
-2.346133	απέχουν	-0.1175531
-2.515761	απριλίου	-0.1175531
-2.101587	από	-0.09839742
-2.515761	απόγευμα	-0.1175531
-2.346133	απόσταση	-0.1175532
-2.515761	αττική	-0.1175531
-2.515761	αυγούστου	-0.1175531
-2.101587	αύριο	-0.09373765
-2.515761	βέροια	-0.1175531
-2.515761	βδομάδα	-0.1175531
-2.515761	βερολίνο	-0.1175531
-2.515761	βράδυ	-0.1175531
-2.101587	βρίσκονται	-0.2911077
-2.515761	βρες	-0.1175531
-2.515761	βόλο	-0.1175531
-2.515761	γενάρη	-0.1175531
-2.515761	γιάννενα	-0.1175531
-1.895049	για	-0.2220441
-2.515761	γρεβενά	-0.1175531
-2.515761	δέκα	-0.1175531
-2.515761	δήμο	-0.1175531
-2.515761	δείξε	-0.1175531
-2.515761	δεκαεφτά	-0.1175531
-2.515761	δεκαοκτώ	-0.1175532
-2.515761	δεκαπέντε	-0.1175531
-2.515761	δεκατρείς	-0.1175532
-2.515761	δεκεμβρίου	-0.1175531
-2.515761	δράμα	-0.1175531
-2.259268	δύο	-0.1175531
-2.515761	δώ	-0.1175531
-2.346133	είκοσι	-0.1175532
-1.819781	είναι	-0.1581086
-2.515761	εδώ	-0.1175531
-2.346133	εικοσι	-0.1015319
-2.515761	εννέα	-0.1175532
-2.346133	εννιά	-0.1175531
-2.346133	ενός	-0.07116053
-2.515761	επτά	-0.1175532
-2.346133	εφημερεύουν	-0.1175531
-2.515761	εφτά	-0.1175532
-2.515761	ζυρίχη	-0.1175531
-2.346133	η	-0.1175531
-2.515761	ηράκλειο	-0.1175531
-2.259268	θα	-0.08005103
-2.515761	θεσσαλονίκη	-0.1175531
-2.346133	ιανουαρίου	-0.07116051
-2.346133	ιουλίου	-0.07116051
-2.346133	ιουνίου	-0.07116051
-2.515761	κάνει	-0.1175531
-2.515761	καβάλα	-0.1175531
-2.515761	καιρού	-0.1175531
-2.346133	καιρό	-0.1175532
-2.346133	καιρός	-0.1037848
-2.515761	καλαμάτα	-0.1175531
-2.515761	καρδίτσα	-0.1175531
-2.515761	κατερίνη	-0.1175531
-2.515761	κοζάνη	-0.1175531
-2.515761	κομοτηνής	-0.1175531
-1.986154	κοντά	-0.2212417
-2.515761	κοντινά	-0.1175531
-2.515761	κοντινή	-0.1175532
-2.515761	κοντινότερα	-0.1175531
-2.515761	κοντινότερο	-0.1175531
-2.515761	κόρινθο	-0.1175531
-2.515761	λάρισα	-0.1175531
-2.515761	λαμία	-0.1175531
-2.515761	λισαβόνα	-0.1175531
-2.515761	λονδίνο	-0.1175531
-2.259268	μέρες	-0.1175531
-2.515761	μέτσοβο	-0.1175531
-2.515761	μήνα	-0.1175531
-2.259268	μία	-0.1175531
-2.346133	μαΐου	-0.1175531
-2.515761	μαδρίτη	-0.1175531
-2.346133	μακριά	-0.07116051
-2.346133	μαρτίου	-0.1175531
-2.259268	μεθαύριο	-0.1175532
-2.515761	μεσάνυχτα	-0.1175531
-2.515761	μεσημέρι	-0.1175531
-2.259268	μου	-0.1652519
-2.515761	μόναχο	-0.1175531
-2.515761	μόσχα	-0.1175531
-2.515761	νέα	-0.1175531
-2.515761	νοεμβρίου	-0.1175531
-1.819781	νοσοκομεία	-0.09957023
-2.515761	νοσοκομείο	-0.1175531
-2.515761	νοσοκομεια	-0.1175531
-2.515761	ξάνθη	-0.1175531
-2.346133	ο	-0.07116053
-2.515761	οκτωβρίου	-0.1175531
-2.515761	οκτώ	-0.1175531
-2.515761	ορεστιάδα	-0.1175531
-2.346133	οχτώ	-0.1175531
-2.515761	πάσχα	-0.1175532
-2.515761	πάτρα	-0.1175532
-2.101587	πέντε	-0.09373765
-2.515761	παρίσι	-0.1175531
-2.515761	πες	-0.1175531
-2.515761	πιο	-0.1175531
-2.259268	ποια	-0.08608079
-2.515761	ποιο	-0.1175532
-2.101587	ποιος	-0.4994196
-2.259268	που	-0.1175531
-2.515761	πρωί	-0.1175531
-2.515761	πρωτοχρονιά	-0.1175531
-2.515761	πρόγνωση	-0.1175532
-2.515761	πτολεμαΐδα	-0.1175531
-2.515761	πυλαίας	-0.1175531
-2.515761	πύργο	-0.1175531
-2.515761	ρέθυμνο	-0.1175531
-2.515761	ρόδου	-0.1175531
-2.515761	ρώμη	-0.1175531
-2.515761	σέρρες	-0.1175531
-2.259268	σήμερα	-0.0860808
-1.650292	σε	-0.2019891
-2.346133	σεπτεμβρίου	-0.1175531
-2.515761	σπάρτη	-0.1175531
-2.515761	σπίτι	-0.1175531
-1.819781	στα	-0.1078697
-1.650292	στη	-0.1027436
-1.650292	στην	-0.1046893
-1.494705	στις	-0.09741225
-1.699785	στο	-0.1100852
-2.515761	στον	-0.1175531
-2.515761	τέσσερα	-0.1175532
-2.515761	τέσσερις	-0.1175532
-1.819781	τα	-0.4425637
-2.515761	τεσσάρων	-0.1175531
-2.346133	τη	-0.1175531
-2.346133	την	-0.1175531
-2.515761	της	-0.1175531
-1.986154	τι	-0.3293567
-2.515761	τις	-0.1175531
-1.650292	το	-0.3084447
-1.986154	τον	-0.7849497
-2.346133	του	-0.1175531
-2.346133	τρία	-0.07116053
-2.515761	τρίκαλα	-0.1175531
-2.515761	τρίπολη	-0.1175531
-2.346133	τρεις	-0.1175531
-2.515761	τριάντα	-0.1175531
-2.515761	τριών	-0.1175531
-2.515761	τώρα	-0.1175531
-2.101587	υπάρχουν	-0.1015319
-2.515761	υόρκη	-0.1175531
-1.819781	φαρμακεία	-0.0983974
-2.515761	φαρμακείο	-0.1175531
-2.346133	φεβρουαρίου	-0.1175531
-2.515761	χαλκίδα	-0.1175531
-2.515761	χανιά	-0.1175531
-2.515761	χιλιομέτρου	-0.1175531
-2.259268	χιλιομέτρων	-0.08608078
-1.819781	χιλιόμετρα	-0.2782041
-2.515761	χιλιόμετρο	-0.1175532
-2.515761	χριστούγεννα	-0.1175531
-2.515761	όσλο	-0.1175531
-2.515761	ώρα	-0.1175531
-2.515761	ώρες	-0.1175531

\2-grams:
-0.81783	<s> βρες	-0.2543536
-0.950339	<s> δείξε	-0.20306
-2.546434	<s> καιρός
-2.403241	<s> νοσοκομεία
-2.546434	<s> ο
-0.81783	<s> πες	-0.3877712
-0.5340665	<s> ποια	-0.6362995
-2.47614	<s> ποιο	-0.1226413
-1.278833	<s> ποιος	-0.2530999
-0.9105423	<s> τι	-0.4756909
-2.495234	<s> υπάρχουν
-2.403241	<s> φαρμακεία
-0.9175929	ένα μήνα
-0.9175929	ένα χιλιόμετρο
-1.083633	έξι μαρτίου
-1.079643	έξι χιλιομέτρων
-1.089526	έξι ώρες
-1.485604	έχει αύριο
-1.512039	έχει μεθαύριο
-1.353885	έχει σε
-1.288132	έχει στη
-1.288132	έχει στην
-1.284065	έχει στις
-1.353885	έχει το
-0.4383062	αγρίνιο </s>
-0.6140829	αθήνα αύριο
-0.6187503	ακτίνα ενός
-0.6091909	αλεξανδρούπολη </s>
-0.9136178	αλεξανδρούπολη την
-0.4383062	αμστερνταμ </s>
-0.6140829	αν υπάρχουν
-0.9136178	απέχουν εννιά
-0.9044618	απέχουν πέντε
-0.4383062	απριλίου </s>
-1.30226	από δώ
-1.201455	από εδώ	-0.1226414
-1.292256	από τη
-1.30226	από τώρα
-0.4383062	απόγευμα </s>
-0.7775875	απόσταση </s>
-1.359299	απόσταση έξι
-1.341413	απόσταση από
-1.366928	απόσταση ενός
-1.378313	απόσταση τεσσάρων
-1.378313	απόσταση τριών
-0.4383062	αττική </s>
-0.5948187	αυγούστου στη
-0.6775611	αύριο </s>
-1.07017	αύριο στις
-1.111747	αύριο το
-0.4383062	βέροια </s>
-0.4383062	βδομάδα </s>
-0.5824349	βερολίνο στις
-0.6091909	βράδυ </s>
-0.8676278	βράδυ στη
-1.636052	βρίσκονται εφτά
-1.484655	βρίσκονται κοντά	-0.1226413
-0.6786275	βρίσκονται σε
-1.533066	βρίσκονται στα
-0.6786275	βρίσκονται στην
-1.622269	βρίσκονται τρία
-1.287126	βρες μου
-1.287126	βρες ποια
-1.229299	βρες τα	-0.06522903
-1.257251	βρες τι	-0.01162568
-1.257251	βρες τον	-0.4064392
-0.6173783	βόλο σήμερα
-0.4383062	γενάρη </s>
-0.4383062	γιάννενα </s>
-1.527978	για μεθαύριο
-1.527978	για σήμερα
-1.536834	για τη
-1.536834	για την
-0.6125963	για τις	-0.126107
-1.400491	για το
-1.487581	για τον	-0.1845905
-0.4383062	γρεβενά </s>
-0.6173783	δέκα μέρες
-0.6207618	δήμο πυλαίας
-1.287126	δείξε μου	-0.093452
-1.271932	δείξε ποιος
-1.229299	δείξε τα
-1.257251	δείξε τι
-1.257251	δείξε τον	-0.1845905
-0.6207618	δεκαεφτά νοεμβρίου
-0.6187503	δεκαοκτώ ιανουαρίου
-0.6207618	δεκαπέντε αυγούστου
-0.6187503	δεκατρείς φεβρουαρίου
-0.4383062	δεκεμβρίου </s>
-0.4383062	δράμα </s>
-1.083633	δύο ιουνίου
-1.083633	δύο μαΐου
-1.042883	δύο χιλιόμετρα
-0.4383062	δώ </s>
-0.9175929	είκοσι απριλίου
-0.9109164	είκοσι μέρες
-1.697456	είναι ένα
-1.697456	είναι η	-0.1226413
-0.7881855	είναι κοντά	-0.02565537
-1.606916	είναι ο	-0.7074692
-1.430207	είναι σε	-0.0768814
-1.493322	είναι στα
-1.488336	είναι στην
-1.56129	είναι τα	-0.09422546
-1.488336	είναι το	-0.1226413
-0.4383062	εδώ </s>
-1.357735	εικοσι δύο
-1.377407	εικοσι επτά
-1.261736	εικοσι μία
-1.377407	εικοσι οκτώ
-1.365623	εικοσι τρεις
-0.6187503	εννέα η
-0.9136178	εννιά σεπτεμβρίου
-0.8856544	εννιά χιλιόμετρα
-0.8132639	ενός χιλιομέτρου	-0.1226414
-0.6187503	επτά μαΐου
-0.6091909	εφημερεύουν </s>
-0.8676278	εφημερεύουν στη
-0.604344	εφτά χιλιόμετρα
-0.4383062	ζυρίχη </s>
-0.9175929	η πρόγνωση	-0.1226413
-0.9175929	η ώρα
-0.4383062	ηράκλειο </s>
-1.186877	θα έχει	-0.02338324
-1.221694	θα είναι	-0.6617117
-1.200731	θα κάνει	-0.09478373
-0.4383062	θεσσαλονίκη </s>
-0.5333518	ιανουαρίου </s>
-0.5333518	ιουλίου </s>
-0.5333518	ιουνίου </s>
-1.398873	κάνει αύριο
-1.419349	κάνει μεθαύριο	-0.1226413
-1.292911	κάνει σε
-1.292911	κάνει στην
-1.234358	κάνει στις
-1.308872	κάνει στο
-1.292911	κάνει το
-0.5824349	καβάλα στις
-0.6075661	καιρού για
-1.475894	καιρό για	-0.08630274
-1.554194	καιρό θα	-0.6617117
-1.554194	καιρό που	-0.1226413
-1.389547	καιρό σε
-1.452645	καιρό στα
-1.389547	καιρό στη
-1.389547	καιρό στην
-1.317553	καιρό στις	-0.1226414
-1.409578	καιρό στο
-1.584358	καιρό της
-1.357501	καιρός για
-1.417809	καιρός σήμερα
-1.339125	καιρός στα
-1.216114	καιρός στη
-1.288249	καιρός στην
-1.228537	καιρός στις
-0.5824349	καλαμάτα στις
-0.4383062	καρδίτσα </s>
-0.5948187	κατερίνη σε
-0.4383062	κοζάνη </s>
-0.6075661	κομοτηνής για
-0.4285688	κοντά </s>
-1.365683	κοντά στη
-1.365683	κοντά στην
-1.302966	κοντά στο
-1.502043	κοντά στον
-0.8856544	κοντινά νοσοκομεία
-0.8856544	κοντινά φαρμακεία
-0.6187503	κοντινή απόσταση	-0.07020471
-0.8856544	κοντινότερα νοσοκομεία
-0.8856544	κοντινότερα φαρμακεία
-0.9175929	κοντινότερο νοσοκομείο
-0.9175929	κοντινότερο φαρμακείο
-0.4383062	κόρινθο </s>
-0.4383062	λάρισα </s>
-0.4383062	λαμία </s>
-0.4383062	λισαβόνα </s>
-0.4383062	λονδίνο </s>
-0.6852779	μέρες </s>
-1.070157	μέρες από
-1.017221	μέρες στη
-0.4383062	μέτσοβο </s>
-0.4383062	μήνα </s>
-1.210345	μία βδομάδα
-1.210345	μία δεκεμβρίου
-1.202579	μία ιουλίου
-1.202579	μία μαρτίου
-0.6091909	μαΐου </s>
-0.8735539	μαΐου στο
-0.6140829	μαδρίτη αύριο
-0.5333518	μακριά </s>
-0.6091909	μαρτίου </s>
-0.8676278	μαρτίου στην
-1.017221	μεθαύριο στην
-1.042883	μεθαύριο τα
-1.017221	μεθαύριο το
-0.4383062	μεσάνυχτα </s>
-0.4383062	μεσημέρι </s>
-1.660632	μου αν
-1.545689	μου για	-0.1845904
-1.628491	μου ποια
-1.514301	μου ποιος	-0.1226414
-1.449288	μου τα	-0.1226413
-1.491531	μου τι	-0.1845905
-0.7242494	μου τον	-0.4064392
-0.5948187	μόναχο σε
-0.5824349	μόσχα στις
-0.6207618	νέα υόρκη
-0.5979707	νοεμβρίου στο
-0.8191964	νοσοκομεία </s>
-1.716747	νοσοκομεία έχει
-1.735078	νοσοκομεία απέχουν
-1.675433	νοσοκομεία βρίσκονται
-1.570868	νοσοκομεία είναι
-1.735078	νοσοκομεία εφημερεύουν
-1.637711	νοσοκομεία κοντά
-1.716747	νοσοκομεία που
-1.486656	νοσοκομεία σε
-1.509588	νοσοκομεία στα
-1.486656	νοσοκομεία στη
-1.458868	νοσοκομεία στο
-1.675433	νοσοκομεία υπάρχουν
-0.4383062	νοσοκομείο </s>
-0.6140829	νοσοκομεια βρίσκονται
-0.4383062	ξάνθη </s>
-0.8097832	ο καιρός	-0.1321455
-0.4383062	οκτωβρίου </s>
-0.6207618	οκτώ οκτωβρίου
-0.4383062	ορεστιάδα </s>
-0.8676278	οχτώ το
-0.8856544	οχτώ χιλιόμετρα
-0.604344	πάσχα στα
-0.604344	πάτρα τα
-1.201239	πέντε ιουνίου
-1.195723	πέντε μέρες	-0.1226413
-1.056653	πέντε χιλιόμετρα	-0.1226414
-0.4383062	παρίσι </s>
-1.287126	πες μου	-0.104148
-1.271932	πες ποιος
-1.229299	πες τα
-1.257251	πες τι
-1.257251	πες τον
-0.6207618	πιο κοντινά
-1.284471	ποια είναι	-0.3048692
-1.202052	ποια νοσοκομεία	-0.2672593
-1.376503	ποια νοσοκομεια
-1.202052	ποια φαρμακεία	-0.3044693
-0.604344	ποιο είναι	-0.1226413
-1.282143	ποιος είναι
-0.1954074	ποιος θα	-0.6617117
-1.202579	που απέχουν
-1.184943	που βρίσκονται
-1.149744	που είναι
-1.19734	που θα
-0.4383062	πρωί </s>
-0.4383062	πρωτοχρονιά </s>
-0.6187503	πρόγνωση του	-0.1226413
-0.4383062	πτολεμαΐδα </s>
-0.4383062	πυλαίας </s>
-0.4383062	πύργο </s>
-0.4383062	ρέθυμνο </s>
-0.6075661	ρόδου για
-0.5824349	ρώμη στις
-0.5824349	σέρρες στις
-0.6655903	σήμερα </s>
-0.9240693	σήμερα το
-1.704017	σε ένα
-1.690462	σε έξι
-1.724604	σε ακτίνα
-0.6383749	σε απόσταση
-1.724604	σε δέκα
-1.704017	σε είκοσι
-1.628824	σε κοντινή	-0.1845905
-1.690462	σε μία
-1.575751	σε πέντε	-0.1226413
-0.6091909	σεπτεμβρίου </s>
-0.8447003	σεπτεμβρίου στις
-0.5824349	σπάρτη στις
-0.4383062	σπίτι </s>
-1.583484	στα γιάννενα
-1.583484	στα γρεβενά
-1.552723	στα δύο
-1.564965	στα οχτώ
-1.524513	στα πέντε
-1.583484	στα τέσσερα
-1.564965	στα τρία
-1.583484	στα τρίκαλα
-1.486709	στα χανιά
-1.590771	στη δράμα	-0.1226414
-1.685114	στη ζυρίχη
-1.590771	στη λάρισα	-0.1226414
-1.685114	στη λαμία
-1.685114	στη λισαβόνα
-1.646156	στη μία
-1.685114	στη μαδρίτη
-1.685114	στη μόσχα
-1.685114	στη νέα
-1.685114	στη ρώμη
-1.685114	στη χαλκίδα
-1.739799	στην αθήνα
-1.646902	στην αλεξανδρούπολη
-1.739799	στην καβάλα
-1.739799	στην καλαμάτα
-1.739799	στην καρδίτσα
-1.739799	στην κατερίνη
-1.739799	στην κοζάνη
-1.646902	στην κόρινθο	-0.1226414
-1.739799	στην ξάνθη
-1.739799	στην ορεστιάδα
-1.739799	στην πάτρα
-1.739799	στην πτολεμαΐδα
-1.739799	στην τρίπολη
-1.77264	στις έξι
-1.826298	στις δεκαεφτά
-1.826298	στις δεκαοκτώ
-1.826298	στις δεκαπέντε
-1.77264	στις δύο
-1.793657	στις είκοσι
-1.709742	στις εικοσι
-1.826298	στις εννέα
-1.793657	στις εννιά
-1.709742	στις οχτώ	-0.1226413
-1.725727	στις πέντε
-1.826298	στις σέρρες
-1.826298	στις τέσσερις
-1.709742	στις τρεις
-1.736468	στις τριάντα
-1.685964	στο αγρίνιο
-1.685964	στο αμστερνταμ
-1.685964	στο βερολίνο
-1.685964	στο βόλο
-1.685964	στο δήμο
-1.685964	στο ηράκλειο
-1.685964	στο λονδίνο
-1.685964	στο μέτσοβο
-1.685964	στο μόναχο
-1.685964	στο παρίσι
-1.591454	στο ρέθυμνο	-0.1226414
-1.685964	στο σπίτι
-0.6207618	στον πύργο
-0.604344	τέσσερα χιλιόμετρα
-0.6187503	τέσσερις ιουλίου
-1.713499	τα κοντινότερα
-1.713499	τα μεσάνυχτα
-0.4854864	τα νοσοκομεία
-1.713499	τα πιο	-0.1226413
-0.601971	τα φαρμακεία	-0.03572677
-1.713499	τα χριστούγεννα
-0.6173783	τεσσάρων χιλιομέτρων
-1.089526	τη βέροια
-1.089526	τη θεσσαλονίκη
-1.089526	τη σπάρτη
-0.9175929	την αττική
-0.9175929	την πρωτοχρονιά
-0.9175929	της κομοτηνής
-0.9175929	της ρόδου
-0.331137	τι καιρό	-0.9627417
-1.390633	τι νοσοκομεία
-1.390633	τι φαρμακεία
-0.9175929	τις δεκατρείς
-0.9136178	τις εικοσι
-1.704648	το απόγευμα
-0.771699	το βράδυ	-0.06550006
-1.704648	το κοντινότερο
-1.60642	το μεσημέρι	-0.1226414
-1.704648	το πάσχα
-0.608916	το πρωί	-0.3095292
-1.704648	το όσλο
-0.07745022	τον καιρό	-0.1447231
-0.9175929	του γενάρη
-0.9175929	του καιρού	-0.1226413
-0.7851881	τρία χιλιόμετρα
-0.5948187	τρίκαλα σε
-0.4383062	τρίπολη </s>
-1.017221	τρεις το
-1.083633	τρεις του
-1.083633	τρεις φεβρουαρίου
-0.9136178	τριάντα ιανουαρίου
-0.9136178	τριάντα σεπτεμβρίου
-0.6173783	τριών χιλιομέτρων
-0.4383062	τώρα </s>
-1.232477	υπάρχουν κοντά
-1.288116	υπάρχουν νοσοκομεία
-1.242369	υπάρχουν στην
-1.257089	υπάρχουν στο
-1.288116	υπάρχουν φαρμακεία
-0.4383062	υόρκη </s>
-0.8145858	φαρμακεία </s>
-1.694696	φαρμακεία έχει
-1.655236	φαρμακεία βρίσκονται
-1.554672	φαρμακεία είναι	-0.08925366
-1.712149	φαρμακεία εφημερεύουν
-1.619065	φαρμακεία κοντά
-1.694696	φαρμακεία που
-1.473071	φαρμακεία σε
-1.491817	φαρμακεία στα
-1.473071	φαρμακεία στη
-1.498605	φαρμακεία στο
-1.577395	φαρμακεία υπάρχουν
-0.4383062	φαρμακείο </s>
-0.6091909	φεβρουαρίου </s>
-0.8735539	φεβρουαρίου στο
-0.4383062	χαλκίδα </s>
-0.6091909	χανιά </s>
-0.8447003	χανιά στις
-0.4383062	χιλιομέτρου </s>
-0.6239924	χιλιομέτρων </s>
-1.067847	χιλιομέτρων από
-0.3138723	χιλιόμετρα </s>
-1.377226	χιλιόμετρα από
-1.396224	χιλιόμετρα μακριά	-0.1226414
-0.6187503	χιλιόμετρο μακριά
-0.4383062	χριστούγεννα </s>
-0.4383062	όσλο </s>
-0.5948187	ώρα το
-0.4383062	ώρες </s>

\3-grams:
-0.9927446	θα έχει στις
-0.5357538	κοντινή απόσταση </s>
-0.4540791	το βράδυ </s>
-1.032689	<s> βρες μου
-1.014517	<s> βρες τα
-0.803462	<s> βρες τι
-0.6581088	<s> βρες τον
-0.9191619	καιρό για τη
-0.5472787	καιρό για τις
-0.4347117	μου για τον
-0.5477591	<s> δείξε μου
-1.122904	<s> δείξε τα
-0.9252904	<s> δείξε τον
-0.2832918	στη δράμα </s>
-0.103765	θα είναι ο
-1.095617	ποια είναι η
-0.3489954	ποια είναι τα
-0.5678103	ποιο είναι το
-0.6536099	φαρμακεία είναι κοντά
-0.8975844	φαρμακεία είναι σε
-0.2832918	από εδώ </s>
-0.472146	είναι η πρόγνωση
-0.5315014	καιρό θα έχει
-0.2874515	καιρό θα κάνει
-0.09954329	ποιος θα είναι
-1.161171	θα κάνει μεθαύριο
-1.105368	θα κάνει στην
-1.076431	θα κάνει στις
-0.9112787	θα κάνει στο
-0.3643737	του καιρού για
-0.0486219	τι καιρό θα
-0.6976794	τον καιρό για
-1.326199	τον καιρό που
-1.254976	τον καιρό σε
-1.218974	τον καιρό στις
-1.337613	τον καιρό της
-1.069774	ο καιρός στη
-1.102531	ο καιρός στην
-0.648535	ο καιρός στις
-0.2781267	βρίσκονται κοντά </s>
-0.388551	είναι κοντά </s>
-0.2979763	σε κοντινή απόσταση
-0.2832918	στην κόρινθο </s>
-0.2832918	στη λάρισα </s>
-0.3961549	πέντε μέρες </s>
-0.330845	χιλιόμετρα μακριά </s>
-0.496906	κάνει μεθαύριο το
-0.2832918	το μεσημέρι </s>
-0.9017608	δείξε μου τα
-0.9105082	δείξε μου τι
-0.9410685	πες μου για
-1.155974	πες μου τα
-0.6426816	πες μου τον
-0.7080509	ποια νοσοκομεία βρίσκονται
-0.5381499	ποια νοσοκομεία είναι
-0.07869486	είναι ο καιρός
-0.4580616	στις οχτώ το
-0.5315558	σε πέντε μέρες
-0.2338417	<s> πες μου
-1.282692	<s> πες τα
-0.3700079	τα πιο κοντινά
-0.745948	<s> ποια είναι
-0.5498961	<s> ποια νοσοκομεία
-0.457707	<s> ποια φαρμακεία
-0.362983	<s> ποιο είναι
-0.09816406	<s> ποιος θα
-0.1385806	μου ποιος θα
-0.5318194	καιρό που θα
-0.1621551	το πρωί </s>
-0.3691554	η πρόγνωση του
-0.2832918	στο ρέθυμνο </s>
-0.7400857	είναι σε κοντινή
-0.5838054	καιρό στις εικοσι
-0.4502133	βρες τα φαρμακεία
-0.9465784	είναι τα κοντινότερα
-0.9465784	είναι τα πιο
-0.4323357	μου τα νοσοκομεία
-0.5064805	μου τα φαρμακεία
-0.08534797	<s> τι καιρό
-0.3182128	βρες τι καιρό
-0.1862629	μου τι καιρό
-0.4643595	για τις εικοσι
-0.5835164	είναι το κοντινότερο
-0.02875627	βρες τον καιρό
-0.04904255	για τον καιρό
-0.04904255	δείξε τον καιρό
-0.02875627	μου τον καιρό
-0.472146	πρόγνωση του καιρού
-0.6120482	ποια φαρμακεία βρίσκονται
-0.607182	ποια φαρμακεία είναι
-1.296806	ποια φαρμακεία υπάρχουν
-1.010666	τα φαρμακεία που
-0.2832918	ενός χιλιομέτρου </s>
-0.2132298	πέντε χιλιόμετρα </s>

\end\
